{"opts":{"layers":[4,3],"iterations":15000,"errorThresh":0.0015,"activation":"logistic","learningRate":0.1,"momentum":0.4,"log":10},"weights":[null,[[-1.9099492068968573,-0.9363908443133345,-0.5230508198850365,0.033626032788374595,-0.6066391975798637,-0.9660271737099263,0.08797620459853146,-0.4295856438451784,-0.2444165707262799,-0.6833697539569434,-0.1236208831979594,-0.6380733366587692,-0.19102595742329925,-0.1062104941315596,-1.0026046496245125,-1.3031876140777945,-0.009203128566427127,-0.4926783460038035],[-3.916112981245008,-0.3772818067010136,-0.4765778309486937,0.09638732614210846,-0.32053314429458163,-0.03332855715866589,0.12209777284104038,0.08666083805760007,-0.07804705545774283,-0.5200242912961097,0.09124838418261903,-0.040141444558575996,-0.021114916011279992,0.02043813793144583,-0.46584685106456397,-0.38839215871944877,0.038920248464287946,-0.6199505423458948],[-0.5398741183137029,0.3638809494969511,0.37190809040609435,-0.07078013014434087,-0.44653560833790806,-0.5477466723516058,-0.27704655928104177,-0.24752424614794763,-0.6247620507302971,0.19164116219225397,-0.1255683070721405,-0.5549094045309708,-0.2509955382298039,-0.1442378826301414,0.16820450348043947,-0.34830864367634606,-0.09998455516590486,0.06542379883236939],[-1.063400078188006,1.075751868003842,1.290805783921076,-0.21610422293958892,0.7235180496328316,0.06172769396336161,-0.5276737934610473,0.007261510929493707,-0.08112212615690574,1.251615730573946,-0.1062864888455339,0.0873695363158686,-0.16365385547620812,-0.12578404184517145,1.1122083347693847,0.6450257140447847,-0.16217736130079224,1.0191968778083373]],[[0.8416658503144114,1.8642634003243688,-0.7412823657396982,-1.3395654920426778],[1.2282326859866943,2.4594236632634927,-0.8823138825998339,-1.965109501587787],[1.2807646760166733,2.634509428439181,-0.809462394209712,-2.1059603523058397]],[[-2.406098089978258,-3.4552224681139028,-3.652137661060056]]],"biases":[null,[-0.41926497465288665,0.26483647103340874,0.12292537268075376,0.727376924341266],[-0.18833418590930473,-0.2754658025723251,-0.38939382100804676],[0.8283573199738419]],"changes":[[],[[2.360668789926219e-17,2.68621287893049e-22,2.261207050663362e-25,1.180457591631925e-43,0.000027281142382096678,0.0000018392498817505975,-6.090107195903073e-28,0.000022249604773795045,1.2967172746907037e-11,1.2954273559114265e-11,2.637633350534205e-49,2.29993531294116e-53,5.445661200774321e-64,-8.72799013352701e-35,7.570059216643157e-10,1.6008261925235148e-26,-3.297631789378618e-19,1.2536306303497873e-38],[5.496758629026777e-17,1.7603606914685757e-21,7.622257682752592e-25,3.8230319111253376e-45,0.00007986938241789491,0.000012225442696451838,-6.0507110552386115e-30,0.00006033867191321278,5.560488398494101e-11,5.553273479952724e-11,5.245508469536735e-49,1.2157626107981558e-52,2.286868639043251e-63,-2.448621830857066e-34,3.5696361742611095e-9,7.567112604738312e-27,-1.118086767400662e-18,5.679510249884788e-38],[-1.3131491641949876e-16,-6.282634294707716e-22,-2.2864751882587357e-25,-7.26673637786471e-42,-0.000025997202053719176,-0.000003181155617959754,4.167136040297788e-26,-0.00002029387710289666,-1.8823164479659038e-11,-1.8799250271989996e-11,-1.900926611466418e-49,-4.347206509248587e-53,-8.391682931181358e-64,8.015784813537154e-35,-1.3276823747865101e-9,-9.08997411901963e-25,3.4762543695318014e-19,-2.3264549253045295e-38],[-4.088725419766311e-16,-3.8587460341823213e-22,-1.7011411320924887e-26,-1.718106048653413e-41,-0.000038197725043303635,-0.000005630438830391289,1.130669950935615e-25,-0.00003995403020814617,-1.2182905680466143e-11,-1.216536331753273e-11,-4.432710508862548e-49,-5.24210746966133e-53,-5.289556676175558e-64,1.271279657174515e-34,-7.908884562170913e-10,-3.879772589256675e-24,5.912763760242545e-19,-1.18062108443973e-38]],[[0.000018482041605529907,0.00003539632126258349,0.0000290703866868954,0.000050146518856964464],[0.000025521596639677837,0.000048707844387660554,0.00004004964317636611,0.00006857960108927179],[0.000026444760648421016,0.00005038337515472503,0.00004145260329078174,0.00007073987125482331]],[[-0.00004877230116019268,-0.00004348334545570043,-0.00004139387394195772]]],"inputLayerSetup":true,"outputs":[["0","0","0","0","1","0","0","0","0","0","0","0","0","0","0","0","0","0"],[0.2638789359784357,0.48607943010450744,0.4197961586077582,0.8101361331357384],[0.38782259718542506,0.32777096814427337,0.30644974193919444],[0.08655049099858719]],"netInput":[null,[-1.0259041722327504,-0.05569667326117289,-0.3236102356571543,1.4508949739740977],[-0.4564741030713164,-0.7182840070418962,-0.8167699394622385],[-2.3565001476502236]],"errorSigs":[null,[0.00024443391872505774,0.0006498736000977901,-0.00021919473115558424,-0.00031289195783367206],[0.00029829127164233407,0.0003975202426921243,0.0004052964127629283],[-0.0005221997469099331]]}