{"opts":{"layers":[4,3],"iterations":200,"errorThresh":0.0001,"activation":"logistic","learningRate":0.1,"momentum":0.4,"log":1},"weights":[null,[[-0.1845575385832068,-0.21345723095327188,-0.3244688676679854,-0.11455811789997013,-0.32561215956723316,-0.10354061776018227,-0.2581291343245665,-0.16955001969271777,-0.09732788147593029,-0.27524339063958086,-0.09017089972251312,-0.19495530328224137,-0.20619538071147184,-0.14973263707467002,-0.27254441193257356,-0.26224370518836954,-0.2872508751156159,-0.22528332648645613,-0.8366990952201165],[-0.008568673854580214,-0.06977181680858244,0.024907508934491396,0.10262010809138357,0.008795188201961134,0.05514248885982639,0.021918247376720608,0.03698710882121658,0.051979941841545425,0.040755425321954995,0.004639929268776725,0.00396295128252378,-0.009148532882297243,0.038633689940678444,0.04775805545309164,0.05165237415856039,0.0071761188218002715,0.05545384648889231,-4.756862032401332],[0.08599340042925008,-0.004833363525531869,-0.09286898300648354,-0.045773336856149226,0.00044236999038672404,-0.08459199043331916,-0.016774780794497277,0.09180609496581135,-0.0639654365133086,-0.03675570365228092,-0.07205837445998196,-0.1027419630815876,-0.03373688480153858,0.08136097168237734,-0.03984964387982487,-0.0051594640057999516,0.04200292730773899,-0.07519481600771988,-3.554067664577024],[-0.09566651941672888,0.059362161605536534,0.010189608648705046,-0.12993087200213863,-0.05902068717280494,-0.02238598203703899,-0.06526013736447743,-0.1599078194234436,-0.046911501573398184,-0.061404736484484176,0.04674577733511812,0.026503762845632772,0.004588897326013223,-0.16654872866295745,-0.0727232460766129,-0.12337467481663975,-0.09312313173506374,-0.07971812310871394,-4.040987372327669]],[[-0.1037898055330725,1.586060560057044,1.1396230039099773,1.2166457964365949],[-0.2512128676136315,2.3941781763856906,1.5823038827812486,1.928799505620522],[-0.12507363371508903,2.2990247127177184,1.5348934137157013,1.883693107941598]],[[-1.8628718317486432,-3.415579691302798,-3.2837528955489232]]],"biases":[null,[-0.3819914740748815,-0.16282515725576088,-0.3681661157252597,-0.2549670715952072],[-1.263612171434067,-2.039063507624177,-2.007345503560675],[1.8041101439064289]],"changes":[[],[[2.562986190990468e-17,-1.2527265387978623e-22,-1.4049479106742598e-26,-2.334714648861199e-49,0.0000024950032360997217,6.667407988231453e-8,2.458105091307514e-31,-0.000003250622762591405,8.114295996523562e-13,8.111784571877809e-13,-2.3347148290907326e-49,-4.6839531074422365e-55,1.4777280159373784e-65,-8.087796371987877e-35,-4.710564852652847e-11,2.0088116469519584e-38,-8.217550752646e-21,-6.625666746615958e-39,5.080443490797176e-7],[-3.537070696390539e-16,1.8305958516219787e-21,2.312064362253907e-25,3.234489514575696e-48,-0.00003155437768874405,-0.0000010102215632033314,-3.0804747399050104e-30,0.00004451907485943205,-1.288547673327841e-11,-1.2881526231422673e-11,3.234489741341364e-48,6.81308255284955e-54,-2.465889701081284e-64,1.0525748505174929e-33,6.594960481407302e-10,-2.930060619792848e-37,1.2876349433308715e-19,9.099987200271628e-38,-0.000006277109174721517],[-2.362597863260275e-16,1.2862081249548433e-21,1.47960788674244e-25,1.9295427068692246e-48,-0.00002094149140228729,-6.500801237341471e-7,-2.0113863929602234e-30,0.000029526766542494113,-7.879836610380468e-12,-7.877428754911073e-12,1.9295428511859935e-48,4.462501718785975e-54,-1.5568371213875238e-64,7.2240770645528385e-34,4.259094109544699e-10,-1.8966852901234622e-37,8.932916938808319e-20,5.606200218295648e-38,-0.0000041651971828392365],[-2.4409124624609337e-16,1.3984152789444663e-21,1.8247349863499156e-25,2.334548468110878e-48,-0.00002475406044021734,-6.961821789337957e-7,-2.4024547822135713e-30,0.00003456403443798254,-9.346473966937469e-12,-9.343635088840052e-12,2.3345486485696477e-48,5.353288061999412e-54,-1.869911473426463e-64,7.534688521662385e-34,4.935360957886042e-10,-2.1386778401423136e-37,8.785998690918124e-20,7.06747408355539e-38,-0.000004959226501903383]],[[8.653206316908036e-8,0.0000024521037591097437,0.000001916959040785736,0.0000013365922416737158],[4.926569054799714e-7,0.000004787914719222027,0.0000038041292563439055,0.0000027426351581159144],[4.4989187862906945e-7,0.000004586116442822166,0.000003639758155784561,0.000002618103129674585]],[[-0.00000407630413265098,-0.000007036181593333219,-0.000006801773129546775]]],"inputLayerSetup":true,"outputs":[["0","0","0","0","1","0","0","0","0","0","0","0","0","0","0","0","0","0",0.152],[0.3026349137980597,0.29378469261180895,0.2874211459415497,0.28328641609727473],[0.46086737182640497,0.39878597942755256,0.4025158238701088],[0.14953223826551046]],"netInput":[null,[-0.8347818961155724,-0.8770729979788022,-0.9079420307505807,-0.9282178393618177],[-0.15685129912711904,-0.410526098017837,-0.3949933899415077],[-1.7382744958877834]],"errorSigs":[null,[0.000023570613457459625,-0.00029646810795511266,-0.0001969544724792272,-0.00023351166065418557],[-0.00014663590089424939,-0.00025943278475894124,-0.0002501904669152498],[0.0003167990567744755]]}